digraph Tree {
node [shape=box] ;
0 [label="X[33] <= 0.5\nentropy = 0.7964\nsamples = 32561\nvalue = [24720, 7841]"] ;
1 [label="X[3] <= 7073.5\nentropy = 0.3483\nsamples = 17585\nvalue = [16436, 1149]"] ;
0 -> 1 [labeldistance=2.5, labelangle=45, headlabel="True"] ;
2 [label="X[2] <= 12.5\nentropy = 0.2828\nsamples = 17274\nvalue = [16425, 849]"] ;
1 -> 2 ;
3 [label="X[0] <= 28.5\nentropy = 0.1669\nsamples = 13864\nvalue = [13522, 342]"] ;
2 -> 3 ;
4 [label="entropy = 0.0429\nsamples = 6212\nvalue = [6183, 29]"] ;
3 -> 4 ;
5 [label="entropy = 0.2464\nsamples = 7652\nvalue = [7339, 313]"] ;
3 -> 5 ;
6 [label="X[0] <= 27.5\nentropy = 0.6065\nsamples = 3410\nvalue = [2903, 507]"] ;
2 -> 6 ;
7 [label="entropy = 0.1297\nsamples = 1003\nvalue = [985, 18]"] ;
6 -> 7 ;
8 [label="entropy = 0.7282\nsamples = 2407\nvalue = [1918, 489]"] ;
6 -> 8 ;
9 [label="X[0] <= 20.5\nentropy = 0.2206\nsamples = 311\nvalue = [11, 300]"] ;
1 -> 9 ;
10 [label="entropy = 0.0\nsamples = 4\nvalue = [4, 0]"] ;
9 -> 10 ;
11 [label="X[3] <= 8296.0\nentropy = 0.1569\nsamples = 307\nvalue = [7, 300]"] ;
9 -> 11 ;
12 [label="entropy = 0.8997\nsamples = 19\nvalue = [6, 13]"] ;
11 -> 12 ;
13 [label="entropy = 0.0334\nsamples = 288\nvalue = [1, 287]"] ;
11 -> 13 ;
14 [label="X[2] <= 12.5\nentropy = 0.9918\nsamples = 14976\nvalue = [8284, 6692]"] ;
0 -> 14 [labeldistance=2.5, labelangle=-45, headlabel="False"] ;
15 [label="X[3] <= 5095.5\nentropy = 0.916\nsamples = 10507\nvalue = [7029, 3478]"] ;
14 -> 15 ;
16 [label="X[2] <= 8.5\nentropy = 0.8772\nsamples = 9979\nvalue = [7018, 2961]"] ;
15 -> 16 ;
17 [label="entropy = 0.4717\nsamples = 1656\nvalue = [1489, 167]"] ;
16 -> 17 ;
18 [label="entropy = 0.9206\nsamples = 8323\nvalue = [5529, 2794]"] ;
16 -> 18 ;
19 [label="X[0] <= 60.5\nentropy = 0.1461\nsamples = 528\nvalue = [11, 517]"] ;
15 -> 19 ;
20 [label="entropy = 0.0223\nsamples = 462\nvalue = [1, 461]"] ;
19 -> 20 ;
21 [label="entropy = 0.6136\nsamples = 66\nvalue = [10, 56]"] ;
19 -> 21 ;
22 [label="X[3] <= 5095.5\nentropy = 0.8566\nsamples = 4469\nvalue = [1255, 3214]"] ;
14 -> 22 ;
23 [label="X[4] <= 1782.5\nentropy = 0.9155\nsamples = 3788\nvalue = [1252, 2536]"] ;
22 -> 23 ;
24 [label="entropy = 0.9471\nsamples = 3390\nvalue = [1239, 2151]"] ;
23 -> 24 ;
25 [label="entropy = 0.2076\nsamples = 398\nvalue = [13, 385]"] ;
23 -> 25 ;
26 [label="X[0] <= 62.5\nentropy = 0.0408\nsamples = 681\nvalue = [3, 678]"] ;
22 -> 26 ;
27 [label="entropy = 0.0\nsamples = 609\nvalue = [0, 609]"] ;
26 -> 27 ;
28 [label="entropy = 0.2499\nsamples = 72\nvalue = [3, 69]"] ;
26 -> 28 ;
}